{"learner":{"attributes":{"best_iteration":"4","best_score":"154.18313148684834"},"feature_names":["year","month","day","dayofweek","quarter","dayofyear","weekofyear","is_weekend","month_sin","month_cos","day_sin","day_cos","week_sin","week_cos","power_consumption_lag_1","power_consumption_lag_7","power_consumption_lag_30","power_consumption_rolling_mean_7","power_consumption_rolling_std_7","power_consumption_rolling_min_7","power_consumption_rolling_max_7","power_consumption_rolling_mean_30","power_consumption_rolling_std_30","power_consumption_rolling_min_30","power_consumption_rolling_max_30"],"feature_types":["int","int","int","int","int","int","int","int","float","float","float","float","float","float","float","float","float","float","float","float","float","float","float","float","float"],"gradient_booster":{"model":{"gbtree_model_param":{"num_parallel_tree":"1","num_trees":"15"},"iteration_indptr":[0,1,2,3,4,5,6,7,8,9,10,11,12,13,14,15],"tree_info":[0,0,0,0,0,0,0,0,0,0,0,0,0,0,0],"trees":[{"base_weights":[-1.3169175E0,-8.997211E1,1.4253078E2,-1.3942783E2,-2.2249847E1,8.31109E1,2.4503485E1,-1.6331514E2,-1.01916084E2,-4.966404E1,1.8314141E0,8.83945E1,6.0936683E-1,-1.6698155E2,-3.9493835E0,-3.624646E0,-1.0750978E2,-5.7673904E1,1.600057E0,2.08031E1,-1.9451729E1,4.9879152E-1,9.12989E1,-1.763516E1,-7.8385835E0,-2.4939697E0,-1.1111168E2,-3.9056496E1,-8.979896E0,1.1426758E0,-9.026672E-1,-2.3417398E1,3.47854E1,-3.4363036E0,-3.1576807E1,9.9256516E1,4.690448E1,-1.1488013E1,-2.729248E0,-1.2181926E0,-4.4252396E0,-3.4757264E0,-3.6883544E-2,1.0948792E0,4.6897607E0,6.667358E-1,-7.629059E-1,-7.5922245E-1,-3.5674896E0,3.7934327E0,1.0349202E1,5.676008E0,-1.1867676E-1],"categories":[],"categories_nodes":[],"categories_segments":[],"categories_sizes":[],"default_left":[1,1,0,1,0,0,0,0,0,0,0,0,0,0,0,0,0,0,0,0,0,0,0,0,0,0,0,0,0,0,0,0,0,0,0,0,0,0,0,0,0,0,0,0,0,0,0,0,0,0,0,0,0],"id":0,"left_children":[1,3,5,7,9,11,-1,13,15,17,19,21,-1,23,-1,-1,25,27,29,31,33,-1,35,-1,-1,-1,37,39,-1,-1,-1,41,43,45,47,49,51,-1,-1,-1,-1,-1,-1,-1,-1,-1,-1,-1,-1,-1,-1,-1,-1],"loss_changes":[1.5049066E6,2.4139331E5,2.5371994E5,2.0989812E4,2.1216342E4,1.1669203E4,0E0,4.30075E3,3.0825469E3,6.2515586E3,7.672644E3,6.3274844E3,0E0,5.2699375E3,0E0,0E0,2.284875E3,4.267875E3,4.1642267E2,6.9976265E3,1.6391873E3,0E0,4.8828125E3,0E0,0E0,0E0,1.9185312E3,8.5729785E2,0E0,0E0,0E0,7.712831E2,1.7962393E3,2.6267654E2,2.2060303E2,1.7881875E3,2.91117E3,0E0,0E0,0E0,0E0,0E0,0E0,0E0,0E0,0E0,0E0,0E0,0E0,0E0,0E0,0E0,0E0],"parents":[2147483647,0,0,1,1,2,2,3,3,4,4,5,5,7,7,8,8,9,9,10,10,11,11,13,13,16,16,17,17,18,18,19,19,20,20,22,22,26,26,27,27,31,31,32,32,33,33,34,34,35,35,36,36],"right_children":[2,4,6,8,10,12,-1,14,16,18,20,22,-1,24,-1,-1,26,28,30,32,34,-1,36,-1,-1,-1,38,40,-1,-1,-1,42,44,46,48,50,52,-1,-1,-1,-1,-1,-1,-1,-1,-1,-1,-1,-1,-1,-1,-1,-1],"split_conditions":[1.9350669E3,1.7652881E3,1.25E2,1.7919598E3,1.8167794E3,5.8049393E1,2.4503485E1,2.6E1,1.720644E3,5.5786766E1,4E0,-9.680771E-1,6.0936683E-1,9.749279E-1,-3.9493835E0,-3.624646E0,1.6519379E3,4.3388373E-1,1.8E1,7E0,1.8358402E3,4.9879152E-1,1.8962914E3,-1.763516E1,-7.8385835E0,-2.4939697E0,6.1E1,-2.2252093E-1,-8.979896E0,1.1426758E0,-9.026672E-1,5E0,1.7677385E3,9E0,-7.818315E-1,-8.9780456E-1,6E0,-1.1488013E1,-2.729248E0,-1.2181926E0,-4.4252396E0,-3.4757264E0,-3.6883544E-2,1.0948792E0,4.6897607E0,6.667358E-1,-7.629059E-1,-7.5922245E-1,-3.5674896E0,3.7934327E0,1.0349202E1,5.676008E0,-1.1867676E-1],"split_indices":[20,17,5,20,17,18,0,2,17,18,3,10,0,12,0,0,14,12,2,2,17,0,21,0,0,0,5,13,0,0,0,2,19,2,12,10,3,0,0,0,0,0,0,0,0,0,0,0,0,0,0,0,0],"split_type":[0,0,0,0,0,0,0,0,0,0,0,0,0,0,0,0,0,0,0,0,0,0,0,0,0,0,0,0,0,0,0,0,0,0,0,0,0,0,0,0,0,0,0,0,0,0,0,0,0,0,0,0,0],"sum_hessian":[1.16E2,7.2E1,4.4E1,4.1E1,3.1E1,2.9E1,1.5E1,2.3E1,1.8E1,1.4E1,1.7E1,2.7E1,2E0,2.2E1,1E0,2E0,1.6E1,1.2E1,2E0,9E0,8E0,1E0,2.6E1,1.9E1,3E0,1E0,1.5E1,9E0,3E0,1E0,1E0,2E0,7E0,4E0,4E0,2.1E1,5E0,1.4E1,1E0,2E0,7E0,1E0,1E0,3E0,4E0,1E0,3E0,1E0,3E0,2E0,1.9E1,4E0,1E0],"tree_param":{"num_deleted":"0","num_feature":"25","num_nodes":"53","size_leaf_vector":"1"}},{"base_weights":[2.4037914E0,-7.0787155E1,1.3266075E2,-1.1032601E2,-1.0437264E1,7.357832E1,2.2037842E1,-1.4040517E2,-7.675787E1,1.4833817E0,-3.8416924E1,7.8998924E1,5.6874186E-1,-1.4351787E2,-3.7519166E0,-8.039103E1,1.5858154E-1,1.5861145E1,-2.1046848E1,-4.313144E1,-3.5040285E-2,-1.12744145E-1,8.253169E1,-3.7790344E0,-1.4691474E1,-5.2113026E1,-9.9613285E0,2.8004517E1,-4.9974365E0,2.98892E1,-3.9869892E1,-5.4813204E0,-2.515974E0,2.7976776E1,8.931609E1,-6.896802E0,-2.657253E0,1.0127655E0,3.5255005E0,6.333985E-1,-8.530518E-1,7.0534056E-1,3.7780397E0,-4.451689E0,-5.9939575E-1,3.4143353E0,4.7385255E-1,9.171116E0,2.1904907E0],"categories":[],"categories_nodes":[],"categories_segments":[],"categories_sizes":[],"default_left":[1,1,0,1,0,0,0,0,0,0,0,0,0,0,0,0,0,0,0,0,0,0,0,0,0,0,0,0,0,0,0,0,0,0,0,0,0,0,0,0,0,0,0,0,0,0,0,0,0],"id":1,"left_children":[1,3,5,7,9,11,-1,13,15,17,19,21,-1,23,-1,25,-1,27,29,31,-1,-1,33,-1,-1,35,-1,37,39,41,43,-1,-1,45,47,-1,-1,-1,-1,-1,-1,-1,-1,-1,-1,-1,-1,-1,-1],"loss_changes":[1.0866909E6,1.7303866E5,1.9627044E5,3.3649625E4,1.0063055E4,9.1189375E3,0E0,1.6609062E3,6.674078E3,7.460382E3,1.6000732E3,6.8866875E3,0E0,1.9900312E3,0E0,6.767328E3,0E0,3.6860598E3,9.820621E3,3.0044336E2,0E0,0E0,6.014047E3,0E0,0E0,2.9026777E3,0E0,8.0949316E2,2.9424115E2,2.741245E2,8.3511816E2,0E0,0E0,4.114126E2,1.2201562E3,0E0,0E0,0E0,0E0,0E0,0E0,0E0,0E0,0E0,0E0,0E0,0E0,0E0,0E0],"parents":[2147483647,0,0,1,1,2,2,3,3,4,4,5,5,7,7,8,8,9,9,10,10,11,11,13,13,15,15,17,17,18,18,19,19,22,22,25,25,27,27,28,28,29,29,30,30,33,33,34,34],"right_children":[2,4,6,8,10,12,-1,14,16,18,20,22,-1,24,-1,26,-1,28,30,32,-1,-1,34,-1,-1,36,-1,38,40,42,44,-1,-1,46,48,-1,-1,-1,-1,-1,-1,-1,-1,-1,-1,-1,-1,-1,-1],"split_conditions":[1.9350669E3,1.7058623E3,2.0712876E3,1.7919598E3,5.3232742E1,5.8049393E1,2.2037842E1,2.6E1,6.580962E1,6.4429375E1,8.9780456E-1,3E0,5.6874186E-1,-9.377521E-1,-3.7519166E0,4.3388373E-1,1.5858154E-1,4E0,1.6833613E3,2E1,-3.5040285E-2,-1.12744145E-1,-9.377521E-1,-3.7790344E0,-1.4691474E1,1.7058623E3,-9.9613285E0,1.7677385E3,9E0,7E0,8.9780456E-1,-5.4813204E0,-2.515974E0,2.4E1,1.9950408E3,-6.896802E0,-2.657253E0,1.0127655E0,3.5255005E0,6.333985E-1,-8.530518E-1,7.0534056E-1,3.7780397E0,-4.451689E0,-5.9939575E-1,3.4143353E0,4.7385255E-1,9.171116E0,2.1904907E0],"split_indices":[20,19,20,20,18,18,0,2,18,22,10,2,0,10,0,12,0,3,16,2,0,0,10,0,0,14,0,19,2,2,10,0,0,2,14,0,0,0,0,0,0,0,0,0,0,0,0,0,0],"split_type":[0,0,0,0,0,0,0,0,0,0,0,0,0,0,0,0,0,0,0,0,0,0,0,0,0,0,0,0,0,0,0,0,0,0,0,0,0,0,0,0,0,0,0,0,0,0,0,0,0],"sum_hessian":[1.12E2,7.2E1,4E1,4.3E1,2.9E1,2.5E1,1.5E1,2.1E1,2.2E1,2.1E1,8E0,2.3E1,2E0,2E1,1E0,2.1E1,1E0,1.3E1,8E0,7E0,1E0,1E0,2.2E1,1E0,1.9E1,1E1,1.1E1,8E0,5E0,2E0,6E0,3E0,4E0,3E0,1.9E1,5E0,5E0,3E0,5E0,1E0,4E0,1E0,1E0,5E0,1E0,2E0,1E0,1.8E1,1E0],"tree_param":{"num_deleted":"0","num_feature":"25","num_nodes":"49","size_leaf_vector":"1"}},{"base_weights":[9.5315866E-2,-6.6662964E1,1.2860262E2,-1.0834017E2,-1.3554883E1,7.2907555E1,1.996661E1,-1.343037E2,-7.7452095E1,1.002232E1,-2.6291784E1,2.470816E1,7.861661E1,-1.3730453E1,-3.564319E0,-8.74036E1,-3.6347473E1,-3.3908813E0,4.1049743E0,-4.292549E1,-4.243608E0,2.9943156E0,4.501587E-1,8.2758865E1,2.6176758E1,-3.1994904E1,-9.699154E1,-4.0278955E0,-8.345032E-1,2.5706651E0,-2.85224E0,-4.7706207E1,7.2215575E-1,2.3904176E0,-1.315469E1,4.704353E0,8.914672E0,5.408142E-1,3.3856995E0,-4.3664227E0,1.5065308E-1,-2.1281617E0,-1.0117834E1,-1.4766327E0,1.3700216E0,-2.5861905E0,-6.5240197E0,9.7794193E-1,-2.6251647E0],"categories":[],"categories_nodes":[],"categories_segments":[],"categories_sizes":[],"default_left":[1,1,0,1,0,0,0,0,1,0,0,0,0,0,0,0,0,0,0,0,0,0,0,0,0,0,0,0,0,0,0,0,0,0,0,0,0,0,0,0,0,0,0,0,0,0,0,0,0],"id":2,"left_children":[1,3,5,7,9,11,-1,13,15,17,19,21,23,-1,-1,25,27,29,-1,31,33,-1,-1,35,37,39,41,-1,-1,43,-1,45,-1,-1,47,-1,-1,-1,-1,-1,-1,-1,-1,-1,-1,-1,-1,-1,-1],"loss_changes":[1.00372856E6,1.6896297E5,1.4375825E5,2.4082281E4,1.0774024E4,4.661672E3,0E0,1.6194375E3,5.8222656E3,5.549497E3,8.252926E3,2.8833374E2,2.39525E3,0E0,0E0,5.9281016E3,3.2441748E2,1.5715487E3,0E0,3.4611191E3,3.0735513E3,0E0,0E0,1.4097656E2,2.954204E2,1.6295376E3,2.2845E3,0E0,0E0,1.9388782E3,0E0,2.9089785E3,0E0,0E0,2.9600295E3,0E0,0E0,0E0,0E0,0E0,0E0,0E0,0E0,0E0,0E0,0E0,0E0,0E0,0E0],"parents":[2147483647,0,0,1,1,2,2,3,3,4,4,5,5,7,7,8,8,9,9,10,10,11,11,12,12,15,15,16,16,17,17,19,19,20,20,23,23,24,24,25,25,26,26,29,29,31,31,34,34],"right_children":[2,4,6,8,10,12,-1,14,16,18,20,22,24,-1,-1,26,28,30,-1,32,34,-1,-1,36,38,40,42,-1,-1,44,-1,46,-1,-1,48,-1,-1,-1,-1,-1,-1,-1,-1,-1,-1,-1,-1,-1,-1],"split_conditions":[1.9350669E3,1.8694009E3,1.26E2,1.7919598E3,2.0013562E3,-8.9780456E-1,1.996661E1,2.6E1,1.7252682E3,1.7772279E3,1.838426E3,1.6942932E3,3E1,-1.3730453E1,-3.564319E0,1.1E1,6.2E1,6E0,4.1049743E0,1.7942983E3,1.8975061E3,2.9943156E0,4.501587E-1,7.3E1,3.1E1,1E1,-9.5413923E-1,-4.0278955E0,-8.345032E-1,-5.064917E-2,-2.85224E0,4.3388373E-1,7.2215575E-1,2.3904176E0,1.8600771E3,4.704353E0,8.914672E0,5.408142E-1,3.3856995E0,-4.3664227E0,1.5065308E-1,-2.1281617E0,-1.0117834E1,-1.4766327E0,1.3700216E0,-2.5861905E0,-6.5240197E0,9.7794193E-1,-2.6251647E0],"split_indices":[20,20,5,20,24,10,0,2,16,19,15,16,2,0,0,5,5,3,0,19,20,0,0,5,2,2,11,0,0,11,0,12,0,0,15,0,0,0,0,0,0,0,0,0,0,0,0,0,0],"split_type":[0,0,0,0,0,0,0,0,0,0,0,0,0,0,0,0,0,0,0,0,0,0,0,0,0,0,0,0,0,0,0,0,0,0,0,0,0,0,0,0,0,0,0,0,0,0,0,0,0],"sum_hessian":[1.15E2,7.6E1,3.9E1,4.2E1,3.4E1,2.3E1,1.6E1,2.1E1,2.1E1,1.2E1,2.2E1,3E0,2E1,2E1,1E0,1.6E1,5E0,9E0,3E0,1.2E1,1E1,2E0,1E0,1.8E1,2E0,3E0,1.3E1,4E0,1E0,8E0,1E0,1.1E1,1E0,2E0,8E0,4E0,1.4E1,1E0,1E0,2E0,1E0,1E0,1.2E1,3E0,5E0,6E0,5E0,3E0,5E0],"tree_param":{"num_deleted":"0","num_feature":"25","num_nodes":"49","size_leaf_vector":"1"}},{"base_weights":[-3.4077709E0,-7.680447E1,9.404953E1,-1.0623738E2,-2.404089E1,5.4045395E1,1.80681E1,-1.2737937E2,-7.449803E1,9.686018E0,-3.464326E1,6.1622677E1,-6.773755E0,-1.3100204E2,-2.021753E0,-7.856963E1,1.4312135E-1,-2.0690613E0,1.9019593E0,-3.8007736E1,1.4640869E0,3.694867E1,7.581335E1,-2.1452394E0,2.2590027E0,-1.3375336E1,-3.3861024E0,-8.311971E1,-2.6595948E0,6.015747E-1,-6.7692465E-1,-4.3936977E1,-1.2618457E1,4.331543E1,-8.345947E-1,2.9870973E0,7.925856E1,-4.1316733E-1,5.1377565E-1,-9.504375E0,-4.5418353E0,-2.9044178E0,-6.1435485E0,-1.9203309E0,6.860474E-1,5.0436473E0,1.6464233E0,4.2764893E-1,-5.5283815E-1,8.495231E0,3.8092377E0,2.020874E-2,-8.218384E-2],"categories":[],"categories_nodes":[],"categories_segments":[],"categories_sizes":[],"default_left":[1,1,0,1,0,0,0,1,0,0,0,0,0,0,0,1,0,0,0,0,0,0,0,0,0,0,0,0,0,0,0,0,0,0,0,0,0,0,0,0,0,0,0,0,0,0,0,0,0,0,0,0,0],"id":3,"left_children":[1,3,5,7,9,11,-1,13,15,17,19,21,23,25,-1,27,-1,29,-1,31,-1,33,35,-1,37,-1,-1,39,-1,-1,-1,41,43,45,47,-1,49,51,-1,-1,-1,-1,-1,-1,-1,-1,-1,-1,-1,-1,-1,-1,-1],"loss_changes":[8.6558856E5,1.04602E5,1.7044706E5,2.0035938E4,9.6327705E3,1.746864E4,0E0,7.0567812E3,6.2955234E3,8.073711E2,3.8727715E3,8.7534375E3,7.114039E2,1.8853438E3,0E0,2.2825547E3,0E0,1.9272247E2,0E0,2.3058281E3,0E0,3.4039473E3,7.9809375E2,0E0,3.289283E1,0E0,0E0,3.325664E3,0E0,0E0,0E0,2.1246836E3,7.73073E2,1.4641035E3,9.5613075E1,0E0,9.829844E2,9.203936E-1,0E0,0E0,0E0,0E0,0E0,0E0,0E0,0E0,0E0,0E0,0E0,0E0,0E0,0E0,0E0],"parents":[2147483647,0,0,1,1,2,2,3,3,4,4,5,5,7,7,8,8,9,9,10,10,11,11,12,12,13,13,15,15,17,17,19,19,21,21,22,22,24,24,27,27,31,31,32,32,33,33,34,34,36,36,37,37],"right_children":[2,4,6,8,10,12,-1,14,16,18,20,22,24,26,-1,28,-1,30,-1,32,-1,34,36,-1,38,-1,-1,40,-1,-1,-1,42,44,46,48,-1,50,52,-1,-1,-1,-1,-1,-1,-1,-1,-1,-1,-1,-1,-1,-1,-1],"split_conditions":[1.8434258E3,1.7652881E3,1.26E2,5.021029E1,1.8574437E3,5.8049393E1,1.80681E1,1.7555266E3,6.5542984E1,1.7927856E3,5.8149826E1,1.9199425E3,6E0,2.6E1,-2.021753E0,1.8137151E3,1.4312135E-1,1E0,1.9019593E0,1.8322476E3,1.4640869E0,1.9602643E3,-9.377521E-1,-2.1452394E0,1.2E1,-1.3375336E1,-3.3861024E0,4.7E1,-2.6595948E0,6.015747E-1,-6.7692465E-1,4.3388373E-1,1.7E1,9.4E1,4E0,2.9870973E0,1.8907396E3,4E0,5.1377565E-1,-9.504375E0,-4.5418353E0,-2.9044178E0,-6.1435485E0,-1.9203309E0,6.860474E-1,5.0436473E0,1.6464233E0,4.2764893E-1,-5.5283815E-1,8.495231E0,3.8092377E0,2.020874E-2,-8.218384E-2],"split_indices":[17,17,5,18,21,18,0,17,18,14,18,17,2,2,0,15,0,3,0,17,0,15,10,0,2,0,0,5,0,0,0,12,2,5,1,0,21,1,0,0,0,0,0,0,0,0,0,0,0,0,0,0,0],"split_type":[0,0,0,0,0,0,0,0,0,0,0,0,0,0,0,0,0,0,0,0,0,0,0,0,0,0,0,0,0,0,0,0,0,0,0,0,0,0,0,0,0,0,0,0,0,0,0,0,0,0,0,0,0],"sum_hessian":[1.19E2,6.8E1,5.1E1,4.3E1,2.5E1,3.6E1,1.5E1,2.4E1,1.9E1,6E0,1.9E1,3.2E1,4E0,2.3E1,1E0,1.8E1,1E0,3E0,3E0,1.8E1,1E0,1.3E1,1.9E1,1E0,3E0,2.2E1,1E0,1.6E1,2E0,1E0,2E0,1.4E1,4E0,1.1E1,2E0,2E0,1.7E1,2E0,1E0,1.1E1,5E0,9E0,5E0,3E0,1E0,8E0,3E0,1E0,1E0,1.4E1,3E0,1E0,1E0],"tree_param":{"num_deleted":"0","num_feature":"25","num_nodes":"53","size_leaf_vector":"1"}},{"base_weights":[2.8184407E0,-6.849187E1,8.833957E1,-9.7596306E1,-2.7993227E1,4.0400997E1,1.5841101E2,-1.15530754E2,-6.8646065E1,-7.428711E0,-4.669153E1,5.414067E1,6.75071E0,3.9021728E0,1.6223804E1,-1.179686E1,-3.2167969E0,-7.310641E1,1.3596801E-1,1.1971717E0,-4.23313E0,-1.6296661E1,-5.293219E1,5.647792E1,1.9195557E-2,-1.4432922E1,2.6809225E1,-7.613276E1,-1.3855591E0,-5.4448366E0,1.7502899E0,-3.1001425E0,1.3908814E0,-3.1656965E1,-6.893125E0,3.9064575E1,7.192297E1,-1.9926489E1,6.517456E-1,4.0399384E0,-2.4739583E-1,-7.945906E0,-1.4782227E0,6.417542E-2,-1.98608E0,-1.4451929E0,-4.9779706E0,4.164284E0,4.0626833E-1,7.6225724E0,1.4447755E0,-2.265143E0,-4.5133668E-1,-5.251953E-1,4.8808596E-1],"categories":[],"categories_nodes":[],"categories_segments":[],"categories_sizes":[],"default_left":[1,1,0,1,0,0,0,0,0,0,0,0,0,0,0,0,0,1,0,0,0,0,0,0,0,0,0,0,0,0,0,0,0,0,0,0,0,0,0,0,0,0,0,0,0,0,0,0,0,0,0,0,0,0,0],"id":4,"left_children":[1,3,5,7,9,11,13,15,17,19,21,23,25,-1,-1,-1,-1,27,-1,29,-1,31,33,35,-1,37,39,41,-1,43,-1,-1,-1,45,-1,47,49,51,-1,-1,53,-1,-1,-1,-1,-1,-1,-1,-1,-1,-1,-1,-1,-1,-1],"loss_changes":[7.3787506E5,7.506153E4,1.783519E5,1.1799094E4,1.0804264E4,1.5354211E4,3.721125E3,6.761875E2,5.4076406E3,4.5666626E3,1.9826445E3,3.0153594E3,5.0609697E3,0E0,0E0,0E0,0E0,1.8141562E3,0E0,1.5032365E3,0E0,2.2078503E3,1.9024492E3,3.376211E3,0E0,8.204238E2,2.2162173E3,1.8864766E3,0E0,8.901864E2,0E0,0E0,0E0,1.4632036E3,0E0,1.00399414E3,1.6190234E3,1.07765015E2,0E0,0E0,1.0262798E2,0E0,0E0,0E0,0E0,0E0,0E0,0E0,0E0,0E0,0E0,0E0,0E0,0E0,0E0],"parents":[2147483647,0,0,1,1,2,2,3,3,4,4,5,5,6,6,7,7,8,8,9,9,10,10,11,11,12,12,17,17,19,19,21,21,22,22,23,23,25,25,26,26,27,27,29,29,33,33,35,35,36,36,37,37,40,40],"right_children":[2,4,6,8,10,12,14,16,18,20,22,24,26,-1,-1,-1,-1,28,-1,30,-1,32,34,36,-1,38,40,42,-1,44,-1,-1,-1,46,-1,48,50,52,-1,-1,54,-1,-1,-1,-1,-1,-1,-1,-1,-1,-1,-1,-1,-1,-1],"split_conditions":[1.7808207E3,1.6895056E3,1.8E1,5.021029E1,1.9130499E3,1.7677385E3,1.8694009E3,2.6E1,6.580962E1,1.8567183E3,-8.743466E-1,5.8049393E1,4.13447E1,3.9021728E0,1.6223804E1,-1.179686E1,-3.2167969E0,1.8137151E3,1.3596801E-1,1E0,-4.23313E0,1.7E1,0E0,4.734239E1,1.9195557E-2,1.6E1,1.8600771E3,9.9871653E-1,-1.3855591E0,1.8286891E3,1.7502899E0,-3.1001425E0,1.3908814E0,-6.513725E-1,-6.893125E0,4.4501755E1,1.9950408E3,1.5E1,6.517456E-1,4.0399384E0,3E0,-7.945906E0,-1.4782227E0,6.417542E-2,-1.98608E0,-1.4451929E0,-4.9779706E0,4.164284E0,4.0626833E-1,7.6225724E0,1.4447755E0,-2.265143E0,-4.5133668E-1,-5.251953E-1,4.8808596E-1],"split_indices":[19,19,6,18,21,23,15,2,18,14,11,18,18,0,0,0,0,15,0,13,0,2,12,18,0,2,14,10,0,14,0,0,0,10,0,18,14,2,0,0,2,0,0,0,0,0,0,0,0,0,0,0,0,0,0],"split_type":[0,0,0,0,0,0,0,0,0,0,0,0,0,0,0,0,0,0,0,0,0,0,0,0,0,0,0,0,0,0,0,0,0,0,0,0,0,0,0,0,0,0,0,0,0,0,0,0,0,0,0,0,0,0,0],"sum_hessian":[1.19E2,6.5E1,5.4E1,3.7E1,2.8E1,3.3E1,2.1E1,2.1E1,1.6E1,1.4E1,1.4E1,2.3E1,1E1,1E0,2E1,2E1,1E0,1.5E1,1E0,1.2E1,2E0,3E0,1.1E1,2.2E1,1E0,5E0,5E0,1.4E1,1E0,9E0,3E0,2E0,1E0,6E0,5E0,1.2E1,1E1,4E0,1E0,3E0,2E0,1.3E1,1E0,7E0,2E0,4E0,2E0,1.1E1,1E0,9E0,1E0,3E0,1E0,1E0,1E0],"tree_param":{"num_deleted":"0","num_feature":"25","num_nodes":"55","size_leaf_vector":"1"}},{"base_weights":[3.3635943E0,-5.097934E1,9.144516E1,-8.75962E1,-1.0912113E1,5.0287777E1,1.4511906E2,-3.1904323E0,-9.320982E1,-4.9630394E1,-4.5213776E0,3.312729E1,6.897778E1,4.1602054E0,1.4855878E1,-9.523662E1,-1.3162842E0,-5.8227267E0,-7.62146E-1,1.4419935E1,-1.1435979E1,4.013027E1,9.694677E0,1.9777832E0,7.165252E0,-9.733507E1,-1.4043092E0,3.3671703E0,-7.7158203E0,-1.63057E1,1.0330103E1,4.4625183E1,1.1770467E0,-8.508301E-2,2.440686E0,-9.884258E0,-2.5301087E0,-2.1511924E0,8.6522216E-1,3.5712892E-1,-2.5079503E0,-1.2231445E-1,1.8439982E0,1.8800172E0,5.3007307E0,3.2128093E-1,-4.98938E-1],"categories":[],"categories_nodes":[],"categories_segments":[],"categories_sizes":[],"default_left":[1,1,0,0,0,0,0,0,1,0,0,0,0,0,0,0,0,0,0,0,0,0,0,0,0,1,0,0,0,0,0,0,0,0,0,0,0,0,0,0,0,0,0,0,0,0,0],"id":5,"left_children":[1,3,5,7,9,11,13,-1,15,17,19,21,23,-1,-1,25,-1,-1,-1,27,29,31,33,-1,-1,35,-1,-1,37,39,41,43,-1,45,-1,-1,-1,-1,-1,-1,-1,-1,-1,-1,-1,-1,-1],"loss_changes":[5.6469525E5,1.0614508E5,9.211078E4,8.906281E3,8.683381E3,6.3746562E3,5.85E2,0E0,4.2625312E3,1.3619492E3,4.355998E3,2.2365195E3,1.6203125E2,0E0,0E0,4.2556562E3,0E0,0E0,0E0,4.0951772E3,2.712314E3,1.00443945E3,7.214847E2,0E0,0E0,9.74125E2,0E0,0E0,1.3152019E3,3.577501E3,4.9103198E2,1.1681367E3,0E0,8.07253E1,0E0,0E0,0E0,0E0,0E0,0E0,0E0,0E0,0E0,0E0,0E0,0E0,0E0],"parents":[2147483647,0,0,1,1,2,2,3,3,4,4,5,5,6,6,8,8,9,9,10,10,11,11,12,12,15,15,19,19,20,20,21,21,22,22,25,25,28,28,29,29,30,30,31,31,33,33],"right_children":[2,4,6,8,10,12,14,-1,16,18,20,22,24,-1,-1,26,-1,-1,-1,28,30,32,34,-1,-1,36,-1,-1,38,40,42,44,-1,46,-1,-1,-1,-1,-1,-1,-1,-1,-1,-1,-1,-1,-1],"split_conditions":[1.9350669E3,1.7652881E3,1.9933822E3,1.826177E3,1.8307621E3,1.9401583E3,1.7616047E3,-3.1904323E0,1.8137151E3,2E0,1.857128E3,5.3648323E1,-9.377521E-1,4.1602054E0,1.4855878E1,9.9871653E-1,-1.3162842E0,-5.8227267E0,-7.62146E-1,6.234898E-1,8.9780456E-1,1E0,8.4864426E-1,1.9777832E0,7.165252E0,6.5542984E1,-1.4043092E0,3.3671703E0,1E0,-2.2252093E-1,1.8600771E3,-8.9780456E-1,1.1770467E0,4E0,2.440686E0,-9.884258E0,-2.5301087E0,-2.1511924E0,8.6522216E-1,3.5712892E-1,-2.5079503E0,-1.2231445E-1,1.8439982E0,1.8800172E0,5.3007307E0,3.2128093E-1,-4.98938E-1],"split_indices":[20,17,17,24,20,14,16,0,15,1,21,18,10,0,0,10,0,0,0,13,10,13,10,0,0,18,0,0,13,13,15,10,0,1,0,0,0,0,0,0,0,0,0,0,0,0,0],"split_type":[0,0,0,0,0,0,0,0,0,0,0,0,0,0,0,0,0,0,0,0,0,0,0,0,0,0,0,0,0,0,0,0,0,0,0,0,0,0,0,0,0,0,0,0,0,0,0],"sum_hessian":[1.16E2,7.2E1,4.4E1,3.7E1,3.5E1,2.6E1,1.8E1,4E0,3.3E1,4E0,3.1E1,1.5E1,1.1E1,1E0,1.7E1,3.2E1,1E0,3E0,1E0,8E0,2.3E1,1.1E1,4E0,1E0,1E1,3.1E1,1E0,4E0,4E0,1.9E1,4E0,9E0,2E0,3E0,1E0,3E1,1E0,2E0,2E0,6E0,1.3E1,2E0,2E0,3E0,6E0,2E0,1E0],"tree_param":{"num_deleted":"0","num_feature":"25","num_nodes":"47","size_leaf_vector":"1"}},{"base_weights":[3.958199E-1,-4.683149E1,7.766788E1,-7.2699036E1,-8.19362E0,4.754721E1,1.2740733E2,-7.455172E1,2.5567627E-1,-1.1898526E0,-2.4403538E1,5.4720848E1,2.1876312E1,9.601539E0,1.6372467E1,-7.677839E1,-2.0012207E0,-1.8369884E1,1.21170845E1,-2.7266052E1,-7.51709E-2,1.3237874E1,5.8207253E1,3.8802278E0,3.9602783E0,-9.968817E0,-6.465095E1,-2.431482E1,3.6065674E0,-1.5818685E1,1.8634377E1,-4.028015E-1,-3.0010342E1,1.6937256E0,2.9195556E-1,2.0218475E1,6.3721833E0,9.745931E-1,-3.145467E0,-2.7881544E0,-6.9418793E0,2.4165447E-1,-3.3628032E0,1.00262456E-1,4.4072267E-1,-3.0337524E-1,-2.0694275E0,1.0065063E0,3.1114411E0,-1.0143026E0,-3.5928662E0,4.0515748E-1,2.4256918E0,2.1728517E-3,-4.739929E-1],"categories":[],"categories_nodes":[],"categories_segments":[],"categories_sizes":[],"default_left":[1,1,0,1,0,0,0,0,0,0,0,0,0,0,0,0,0,0,0,0,0,0,0,0,0,0,0,0,0,0,0,0,0,0,0,0,0,0,0,0,0,0,0,0,0,0,0,0,0,0,0,0,0,0,0],"id":6,"left_children":[1,3,5,7,9,11,13,15,-1,17,19,21,23,-1,-1,25,-1,27,29,31,-1,33,35,-1,37,-1,39,41,43,45,47,-1,49,-1,-1,51,-1,-1,53,-1,-1,-1,-1,-1,-1,-1,-1,-1,-1,-1,-1,-1,-1,-1,-1],"loss_changes":[4.2331266E5,7.136594E4,5.9862312E4,6.1859062E3,3.3768784E3,4.143367E3,2.5210625E3,3.5640312E3,0E0,5.252089E3,5.888374E2,2.4112422E3,2.2723015E3,0E0,0E0,4.668547E3,0E0,1.3941787E3,2.6616245E3,3.8929248E2,0E0,6.506494E1,2.9014922E3,0E0,2.3621236E2,0E0,3.1485078E3,2.0729023E3,1.8358192E0,1.2422095E2,8.6322974E2,0E0,4.5864307E2,0E0,0E0,1.628778E2,0E0,0E0,1.52529125E1,0E0,0E0,0E0,0E0,0E0,0E0,0E0,0E0,0E0,0E0,0E0,0E0,0E0,0E0,0E0,0E0],"parents":[2147483647,0,0,1,1,2,2,3,3,4,4,5,5,6,6,7,7,9,9,10,10,11,11,12,12,15,15,17,17,18,18,19,19,21,21,22,22,24,24,26,26,27,27,28,28,29,29,30,30,32,32,35,35,38,38],"right_children":[2,4,6,8,10,12,14,16,-1,18,20,22,24,-1,-1,26,-1,28,30,32,-1,34,36,-1,38,-1,40,42,44,46,48,-1,50,-1,-1,52,-1,-1,54,-1,-1,-1,-1,-1,-1,-1,-1,-1,-1,-1,-1,-1,-1,-1,-1],"split_conditions":[1.9350669E3,1.7757281E3,1.9933822E3,6.580962E1,5.3232742E1,5.3648323E1,2.0900068E3,3E0,2.5567627E-1,1.8281842E3,6.3377163E1,-9.680771E-1,1.690337E3,9.601539E0,1.6372467E1,1.7633231E3,-2.0012207E0,4.8529804E1,-9.5413923E-1,-4.4039416E-1,-7.51709E-2,4E0,1E0,3.8802278E0,4E0,-9.968817E0,-8.743466E-1,3.8656044E1,2E0,6E0,1.8358402E3,-4.028015E-1,-9.377521E-1,1.6937256E0,2.9195556E-1,-7.247928E-1,6.3721833E0,9.745931E-1,4E0,-2.7881544E0,-6.9418793E0,2.4165447E-1,-3.3628032E0,1.00262456E-1,4.4072267E-1,-3.0337524E-1,-2.0694275E0,1.0065063E0,3.1114411E0,-1.0143026E0,-3.5928662E0,4.0515748E-1,2.4256918E0,2.1728517E-3,-4.739929E-1],"split_indices":[20,17,17,18,18,18,17,1,0,17,18,10,16,0,0,16,0,18,11,11,0,3,3,0,3,0,11,18,1,3,17,0,10,0,0,10,0,0,1,0,0,0,0,0,0,0,0,0,0,0,0,0,0,0,0],"split_type":[0,0,0,0,0,0,0,0,0,0,0,0,0,0,0,0,0,0,0,0,0,0,0,0,0,0,0,0,0,0,0,0,0,0,0,0,0,0,0,0,0,0,0,0,0,0,0,0,0,0,0,0,0,0,0],"sum_hessian":[1.14E2,7.1E1,4.3E1,4.2E1,2.9E1,2.8E1,1.5E1,4.1E1,1E0,2.1E1,8E0,2.1E1,7E0,1E1,5E0,3.9E1,2E0,9E0,1.2E1,7E0,1E0,2E0,1.9E1,3E0,4E0,1.1E1,2.8E1,7E0,2E0,2E0,1E1,1E0,6E0,1E0,1E0,3E0,1.6E1,2E0,2E0,4E0,2.4E1,2E0,5E0,1E0,1E0,1E0,1E0,7E0,3E0,2E0,4E0,1E0,2E0,1E0,1E0],"tree_param":{"num_deleted":"0","num_feature":"25","num_nodes":"55","size_leaf_vector":"1"}},{"base_weights":[-9.300053E-1,-4.607515E1,7.4334045E1,-7.0137E1,-1.5309925E1,4.8187325E1,1.2895462E2,-1.0187755E2,-6.127879E1,-2.156892E1,6.1631775E0,2.8863546E1,5.785564E1,3.472119E0,1.3391399E2,-2.7279115E0,-1.097641E1,-2.85719E1,-6.480485E1,-1.5006987E1,-4.481526E0,1.4595651E1,-2.6432068E0,3.498213E1,-1.1529135E0,6.26194E1,2.43367E0,3.9125428E0,1.3897426E1,-7.3954263E0,-4.022441E0,-6.752987E1,-1.8678061E0,-2.1196777E1,1.6598816E1,2.3215088E1,2.327301E0,1.68956E1,4.0319843E1,2.7735597E-1,-4.5029297E-1,1.6090393E0,6.4648643E0,-2.0593873E-1,-9.0337527E-1,-6.936794E0,-9.869995E-1,6.629639E-2,-2.5612924E0,2.4053142E0,-2.88208E-1,4.1868898E-1,2.816219E0,-1.4520264E-1,6.832642E-1,2.2513711E0,2.0629882E-3,1.1737427E0,4.312734E0],"categories":[],"categories_nodes":[],"categories_segments":[],"categories_sizes":[],"default_left":[1,1,0,0,0,0,0,0,0,0,0,0,0,0,0,0,0,0,0,0,0,0,0,0,0,0,0,0,0,0,0,0,0,0,0,0,0,0,0,0,0,0,0,0,0,0,0,0,0,0,0,0,0,0,0,0,0,0,0],"id":7,"left_children":[1,3,5,7,9,11,13,15,17,19,21,23,25,-1,27,-1,-1,29,31,33,-1,35,-1,37,39,41,-1,-1,-1,43,-1,45,-1,47,49,51,53,55,57,-1,-1,-1,-1,-1,-1,-1,-1,-1,-1,-1,-1,-1,-1,-1,-1,-1,-1,-1,-1],"loss_changes":[3.805815E5,5.0744984E4,5.376825E4,4.7224688E3,4.4337354E3,3.9349375E3,1.4257344E3,1.124E3,1.9541719E3,3.1409805E3,2.5846616E3,2.2442305E3,1.5098984E3,0E0,3.1845312E2,0E0,0E0,9.3631836E2,2.3838672E3,4.460141E3,0E0,6.861953E2,0E0,2.8417773E2,5.1950386E1,4.7047266E2,0E0,0E0,0E0,7.622513E0,0E0,2.176875E3,0E0,1.754624E3,6.501908E2,2.5862573E2,7.80298E1,3.7875745E2,5.551172E1,0E0,0E0,0E0,0E0,0E0,0E0,0E0,0E0,0E0,0E0,0E0,0E0,0E0,0E0,0E0,0E0,0E0,0E0,0E0,0E0],"parents":[2147483647,0,0,1,1,2,2,3,3,4,4,5,5,6,6,7,7,8,8,9,9,10,10,11,11,12,12,14,14,17,17,18,18,19,19,21,21,23,23,24,24,25,25,29,29,31,31,33,33,34,34,35,35,36,36,37,37,38,38],"right_children":[2,4,6,8,10,12,14,16,18,20,22,24,26,-1,28,-1,-1,30,32,34,-1,36,-1,38,40,42,-1,-1,-1,44,-1,46,-1,48,50,52,54,56,58,-1,-1,-1,-1,-1,-1,-1,-1,-1,-1,-1,-1,-1,-1,-1,-1,-1,-1,-1,-1],"split_conditions":[1.9350669E3,1.7674136E3,1.26E2,1.6601914E3,8.9780456E-1,1.9213193E3,1.7616047E3,-7.818315E-1,1.6594454E3,1.8636407E3,1.9293036E3,1.9602643E3,9.749279E-1,3.472119E0,-9.5413923E-1,-2.7279115E0,-1.097641E1,2E0,3E0,1.838426E3,-4.481526E0,3E0,-2.6432068E0,7.3E1,4E0,-9.8846835E-1,2.43367E0,3.9125428E0,1.3897426E1,5E0,-4.022441E0,9.9871653E-1,-1.8678061E0,-9.680771E-1,4E0,7E0,9.8846835E-1,4E0,-8.9780456E-1,2.7735597E-1,-4.5029297E-1,1.6090393E0,6.4648643E0,-2.0593873E-1,-9.0337527E-1,-6.936794E0,-9.869995E-1,6.629639E-2,-2.5612924E0,2.4053142E0,-2.88208E-1,4.1868898E-1,2.816219E0,-1.4520264E-1,6.832642E-1,2.2513711E0,2.0629882E-3,1.1737427E0,4.312734E0],"split_indices":[20,17,5,17,10,17,16,12,14,15,15,15,12,0,11,0,0,1,1,15,0,3,0,5,1,10,0,0,0,2,0,10,0,10,3,2,10,3,10,0,0,0,0,0,0,0,0,0,0,0,0,0,0,0,0,0,0,0,0],"split_type":[0,0,0,0,0,0,0,0,0,0,0,0,0,0,0,0,0,0,0,0,0,0,0,0,0,0,0,0,0,0,0,0,0,0,0,0,0,0,0,0,0,0,0,0,0,0,0,0,0,0,0,0,0,0,0,0,0,0,0],"sum_hessian":[1.1E2,6.9E1,4.1E1,3.8E1,3.1E1,2.9E1,1.2E1,6E0,3.2E1,2.4E1,7E0,1.1E1,1.8E1,1E0,1.1E1,1E0,5E0,4E0,2.8E1,2E1,4E0,6E0,1E0,9E0,2E0,1.5E1,3E0,1E0,1E1,2E0,2E0,2.6E1,2E0,1.7E1,3E0,3E0,3E0,3E0,6E0,1E0,1E0,1E0,1.4E1,1E0,1E0,2.5E1,1E0,3E0,1.4E1,2E0,1E0,1E0,2E0,2E0,1E0,2E0,1E0,1E0,5E0],"tree_param":{"num_deleted":"0","num_feature":"25","num_nodes":"59","size_leaf_vector":"1"}},{"base_weights":[-5.6977134E0,-5.6092655E1,5.7913868E1,-7.266966E1,-2.6127111E1,3.276822E1,1.09300354E2,-5.9367245E1,-9.8761375E1,-3.14823E1,8.519409E0,4.3701256E1,4.941484E0,7.8096237E0,1.3826332E1,-6.4650826E1,-2.1075903E1,-4.32587E0,-1.1245574E1,-1.6200562E1,-4.1593555E1,-8.197632E-2,1.1905721E0,1.6153381E1,4.6723537E1,1.3833523E1,-2.3381796E0,-6.882763E1,-1.107837E0,-1.956421E-1,-2.5366669E0,-2.1258139E1,1.4658813E0,-4.446783E0,-4.9882814E-1,1.978125E0,2.6348877E-1,3.0484701E1,6.019104E1,1.7892456E1,-9.31897E-1,-7.7471957E0,-3.8001764E0,6.768799E-2,-2.7621982E0,3.9162323E0,1.0503565E0,6.6758637E0,2.0424562E0,2.1670742E0,-4.277771E-1],"categories":[],"categories_nodes":[],"categories_segments":[],"categories_sizes":[],"default_left":[1,1,0,1,0,0,0,0,0,0,0,0,0,0,0,0,0,0,0,0,0,0,0,0,0,0,0,0,0,0,0,0,0,0,0,0,0,0,0,0,0,0,0,0,0,0,0,0,0,0,0],"id":8,"left_children":[1,3,5,7,9,11,13,15,17,19,21,23,25,-1,-1,27,29,-1,-1,31,33,-1,-1,35,37,39,-1,41,-1,-1,-1,43,-1,-1,-1,-1,-1,45,47,49,-1,-1,-1,-1,-1,-1,-1,-1,-1,-1,-1],"loss_changes":[3.6228716E5,2.9395906E4,6.102575E4,8.0201406E3,4.7211396E3,1.0432121E4,3.6623594E3,4.5045625E3,4.2561953E3,2.5710293E3,1.3626126E2,1.3266992E3,3.0938215E3,0E0,0E0,4.831547E3,3.6055835E2,0E0,0E0,1.8723555E3,1.0407441E3,0E0,0E0,1.4405188E2,2.976418E3,1.0125088E3,0E0,3.184711E3,0E0,0E0,0E0,1.2750161E3,0E0,0E0,0E0,0E0,0E0,1.6693203E3,1.5093594E3,7.628262E2,0E0,0E0,0E0,0E0,0E0,0E0,0E0,0E0,0E0,0E0,0E0],"parents":[2147483647,0,0,1,1,2,2,3,3,4,4,5,5,6,6,7,7,8,8,9,9,10,10,11,11,12,12,15,15,16,16,19,19,20,20,23,23,24,24,25,25,27,27,31,31,37,37,38,38,39,39],"right_children":[2,4,6,8,10,12,14,16,18,20,22,24,26,-1,-1,28,30,-1,-1,32,34,-1,-1,36,38,40,-1,42,-1,-1,-1,44,-1,-1,-1,-1,-1,46,48,50,-1,-1,-1,-1,-1,-1,-1,-1,-1,-1,-1],"split_conditions":[1.8415056E3,1.7808207E3,1.25E2,6.3639515E1,1.13E2,1.7677385E3,2.0900068E3,9.749279E-1,1.6109202E3,1.8137151E3,2.4E1,-9.377521E-1,7.818315E-1,7.8096237E0,1.3826332E1,5.7E1,5E0,-4.32587E0,-1.1245574E1,1.8133699E3,8.9780456E-1,-8.197632E-2,1.1905721E0,2.4E1,1.9783518E3,1.04E2,-2.3381796E0,8.9780456E-1,-1.107837E0,-1.956421E-1,-2.5366669E0,1.7919598E3,1.4658813E0,-4.446783E0,-4.9882814E-1,1.978125E0,2.6348877E-1,1.6895056E3,9.749279E-1,6E0,-9.31897E-1,-7.7471957E0,-3.8001764E0,6.768799E-2,-2.7621982E0,3.9162323E0,1.0503565E0,6.6758637E0,2.0424562E0,2.1670742E0,-4.277771E-1],"split_indices":[17,14,5,22,5,23,17,12,14,14,2,10,12,0,0,5,5,0,0,14,10,0,0,2,24,5,0,10,0,0,0,14,0,0,0,0,0,16,12,3,0,0,0,0,0,0,0,0,0,0,0],"split_type":[0,0,0,0,0,0,0,0,0,0,0,0,0,0,0,0,0,0,0,0,0,0,0,0,0,0,0,0,0,0,0,0,0,0,0,0,0,0,0,0,0,0,0,0,0,0,0,0,0,0,0],"sum_hessian":[1.11E2,6.2E1,4.9E1,3.9E1,2.3E1,3.4E1,1.5E1,2.8E1,1.1E1,2E1,3E0,2.4E1,1E1,9E0,6E0,2.4E1,4E0,3E0,8E0,9E0,1.1E1,1E0,2E0,3E0,2.1E1,8E0,2E0,2.2E1,2E0,1E0,3E0,8E0,1E0,1E1,1E0,2E0,1E0,1.1E1,1E1,7E0,1E0,1.6E1,6E0,2E0,6E0,7E0,4E0,8E0,2E0,6E0,1E0],"tree_param":{"num_deleted":"0","num_feature":"25","num_nodes":"51","size_leaf_vector":"1"}},{"base_weights":[-3.648371E-1,-3.544259E1,6.2955128E1,-5.9884007E1,-7.9798717E0,4.15583E1,1.0584382E2,-7.6173775E1,-4.2294025E1,4.9615723E-1,-2.4973276E1,4.307864E1,-5.0561525E-2,2.9080322E0,1.0981741E2,-8.568404E1,-4.7629905E0,-4.7967934E1,7.738729E-1,-1.8571117E1,5.012358E0,7.2865396E0,-3.2153893E1,4.7502712E1,1.893992E1,7.325091E0,1.3417543E1,-9.371981E0,-4.4173617E0,-1.4375855E0,-5.596743E1,-2.2077882E0,-2.2720337E-1,-4.209577E0,2.05242E1,-2.996094E-1,1.3925904E0,-1.3672038E1,-3.5065353E0,1.1199992E1,5.042678E1,2.4353466E1,-4.063904E-1,-3.5201917E0,-8.124872E0,-9.396505E-1,1.7941325E0,2.5593872E0,3.543457E-1,-1.8782959E0,-1.7250977E-1,1.4296814E0,2.503174E-1,3.3031862E0,6.072032E0,7.4172974E-1,2.6733186E0],"categories":[],"categories_nodes":[],"categories_segments":[],"categories_sizes":[],"default_left":[1,1,0,0,0,0,0,0,0,0,0,0,0,0,0,0,0,0,0,0,0,0,0,0,0,0,0,0,0,0,0,0,0,0,0,0,0,0,0,0,0,0,0,0,0,0,0,0,0,0,0,0,0,0,0,0,0],"id":9,"left_children":[1,3,5,7,9,11,13,15,17,19,21,23,-1,-1,25,27,-1,29,-1,31,33,35,37,39,41,-1,-1,-1,-1,-1,43,-1,-1,45,47,-1,-1,49,-1,51,53,55,-1,-1,-1,-1,-1,-1,-1,-1,-1,-1,-1,-1,-1,-1,-1],"loss_changes":[2.5543923E5,4.9192977E4,3.3226266E4,7.95325E3,5.197708E3,1.876375E3,7.718281E2,1.0766094E3,6.332715E3,2.2458765E3,3.0140352E3,2.0904648E3,0E0,0E0,8.5978125E2,1.9644531E2,0E0,4.3010938E3,0E0,2.3562329E2,3.0904316E3,2.4653374E2,5.8676758E1,1.8767109E3,8.461633E2,0E0,0E0,0E0,0E0,0E0,5.014574E3,0E0,0E0,1.7771176E3,5.980034E2,0E0,0E0,1.5077716E2,0E0,4.50101E1,1.754457E3,3.2287598E0,0E0,0E0,0E0,0E0,0E0,0E0,0E0,0E0,0E0,0E0,0E0,0E0,0E0,0E0,0E0],"parents":[2147483647,0,0,1,1,2,2,3,3,4,4,5,5,6,6,7,7,8,8,9,9,10,10,11,11,14,14,15,15,17,17,19,19,20,20,21,21,22,22,23,23,24,24,30,30,33,33,34,34,37,37,39,39,40,40,41,41],"right_children":[2,4,6,8,10,12,14,16,18,20,22,24,-1,-1,26,28,-1,30,-1,32,34,36,38,40,42,-1,-1,-1,-1,-1,44,-1,-1,46,48,-1,-1,50,-1,52,54,56,-1,-1,-1,-1,-1,-1,-1,-1,-1,-1,-1,-1,-1,-1,-1],"split_conditions":[1.9350669E3,1.7772279E3,1.26E2,1.7919598E3,1.9079613E3,5.5406403E1,1.7616047E3,5E0,8.9780456E-1,-8.743466E-1,-8.743466E-1,1.8962914E3,-5.0561525E-2,2.9080322E0,1.7E1,1.7938492E3,-4.7629905E0,1.7513767E3,7.738729E-1,1.9719323E3,1.8975061E3,1.7E1,1.8443689E3,-9.680771E-1,6E0,7.325091E0,1.3417543E1,-9.371981E0,-4.4173617E0,-1.4375855E0,1.7450398E3,-2.2077882E0,-2.2720337E-1,1.8339818E3,4E0,-2.996094E-1,1.3925904E0,5E0,-3.5065353E0,2.4E1,1.9783518E3,8.9E1,-4.063904E-1,-3.5201917E0,-8.124872E0,-9.396505E-1,1.7941325E0,2.5593872E0,3.543457E-1,-1.8782959E0,-1.7250977E-1,1.4296814E0,2.503174E-1,3.3031862E0,6.072032E0,7.4172974E-1,2.6733186E0],"split_indices":[20,14,5,20,21,18,16,3,10,11,11,21,0,0,2,16,0,21,0,16,20,2,16,10,3,0,0,0,0,0,14,0,0,15,3,0,0,2,0,2,20,5,0,0,0,0,0,0,0,0,0,0,0,0,0,0,0],"split_type":[0,0,0,0,0,0,0,0,0,0,0,0,0,0,0,0,0,0,0,0,0,0,0,0,0,0,0,0,0,0,0,0,0,0,0,0,0,0,0,0,0,0,0,0,0,0,0,0,0,0,0,0,0,0,0,0,0],"sum_hessian":[1.13E2,7.3E1,4E1,3.8E1,3.5E1,2.8E1,1.2E1,1.8E1,2E1,2.4E1,1.1E1,2.7E1,1E0,1E0,1.1E1,1.2E1,6E0,1.8E1,2E0,4E0,2E1,2E0,9E0,2.2E1,5E0,6E0,5E0,9E0,3E0,4E0,1.4E1,3E0,1E0,1.3E1,7E0,1E0,1E0,2E0,7E0,2E0,2E1,4E0,1E0,9E0,5E0,1.1E1,2E0,5E0,2E0,1E0,1E0,1E0,1E0,9E0,1.1E1,1E0,3E0],"tree_param":{"num_deleted":"0","num_feature":"25","num_nodes":"57","size_leaf_vector":"1"}},{"base_weights":[-1.0596824E0,-4.065245E1,4.791064E1,-5.5598022E1,-6.875433E0,2.1894E1,8.31558E1,-4.6427406E1,-8.139028E1,1.9177572E1,-1.0439611E1,-1.5840485E1,2.6195463E1,6.5920205E0,1.1313428E1,-1.3321411E1,-4.8956715E1,-9.518364E0,-3.3455994E0,2.4352844E0,4.4135132E-1,-2.3811035E0,-2.8845947E1,-2.0028076E0,-1.638855E-1,2.8122437E1,-5.2144367E-2,-3.7731934E-1,-2.6076844E0,-3.6064285E1,-6.120668E1,1.2581324E1,-8.965743E0,-6.069641E-1,-3.2187278E0,2.016789E1,3.704784E1,3.423706E-1,-3.9896852E-1,-4.076824E0,-8.2323915E-1,-3.8526447E0,-7.9071107E0,-1.9888306E-1,1.672107E0,-2.4440734E0,-4.9741697E-1,2.2397027E0,-7.7491456E-1,4.0975943E0,1.1604899E0],"categories":[],"categories_nodes":[],"categories_segments":[],"categories_sizes":[],"default_left":[1,1,0,1,0,0,0,0,0,0,1,0,0,0,0,0,0,0,0,0,0,0,0,0,0,0,0,0,0,0,0,0,0,0,0,0,0,0,0,0,0,0,0,0,0,0,0,0,0,0,0],"id":10,"left_children":[1,3,5,7,9,11,13,15,17,19,21,23,25,-1,-1,27,29,-1,-1,-1,-1,31,33,-1,-1,35,-1,37,-1,39,41,43,45,-1,-1,47,49,-1,-1,-1,-1,-1,-1,-1,-1,-1,-1,-1,-1,-1,-1],"loss_changes":[2.384899E5,3.3945273E4,4.8612234E4,7.3382188E3,2.2430732E3,5.771296E3,4.4261875E3,2.446039E3,4.0884531E3,1.2174255E2,2.8978667E3,2.0505933E2,1.5591484E3,0E0,0E0,6.505907E2,3.1623125E3,0E0,0E0,0E0,0E0,1.5906337E3,2.612544E2,0E0,0E0,1.2407539E3,0E0,5.4851593E1,0E0,2.1518613E3,3.436379E3,3.34839E2,5.578929E2,0E0,0E0,1.2314824E3,7.2378906E2,0E0,0E0,0E0,0E0,0E0,0E0,0E0,0E0,0E0,0E0,0E0,0E0,0E0,0E0],"parents":[2147483647,0,0,1,1,2,2,3,3,4,4,5,5,6,6,7,7,8,8,9,9,10,10,11,11,12,12,15,15,16,16,21,21,22,22,25,25,27,27,29,29,30,30,31,31,32,32,35,35,36,36],"right_children":[2,4,6,8,10,12,14,16,18,20,22,24,26,-1,-1,28,30,-1,-1,-1,-1,32,34,-1,-1,36,-1,38,-1,40,42,44,46,-1,-1,48,50,-1,-1,-1,-1,-1,-1,-1,-1,-1,-1,-1,-1,-1,-1],"split_conditions":[1.8434258E3,1.7778511E3,1.19E2,6.3639515E1,1.7058623E3,1.7808207E3,2.0900068E3,1.6519379E3,5E0,5E0,6.4429375E1,6E0,5.8049393E1,6.5920205E0,1.1313428E1,2E0,5.373909E1,-9.518364E0,-3.3455994E0,2.4352844E0,4.4135132E-1,2E0,1.7942983E3,-2.0028076E0,-1.638855E-1,4.3388373E-1,-5.2144367E-2,7E0,-2.6076844E0,5.1957973E1,1.7677385E3,2E0,8E0,-6.069641E-1,-3.2187278E0,1.8965557E3,1.9602643E3,3.423706E-1,-3.9896852E-1,-4.076824E0,-8.2323915E-1,-3.8526447E0,-7.9071107E0,-1.9888306E-1,1.672107E0,-2.4440734E0,-4.9741697E-1,2.2397027E0,-7.7491456E-1,4.0975943E0,1.1604899E0],"split_indices":[17,17,5,22,16,19,17,14,3,2,22,2,18,0,0,1,18,0,0,0,0,3,14,0,0,12,0,2,0,18,15,1,2,0,0,16,14,0,0,0,0,0,0,0,0,0,0,0,0,0,0],"split_type":[0,0,0,0,0,0,0,0,0,0,0,0,0,0,0,0,0,0,0,0,0,0,0,0,0,0,0,0,0,0,0,0,0,0,0,0,0,0,0,0,0,0,0,0,0,0,0,0,0,0,0],"sum_hessian":[1.21E2,6.7E1,5.4E1,4.6E1,2.1E1,3.2E1,2.2E1,3.6E1,1E1,2E0,1.9E1,3E0,2.9E1,1.6E1,6E0,3E0,3.3E1,7E0,3E0,1E0,1E0,1.4E1,5E0,2E0,1E0,2.7E1,2E0,2E0,1E0,1.8E1,1.5E1,4E0,1E1,1E0,4E0,1.6E1,1.1E1,1E0,1E0,1.5E1,3E0,8E0,7E0,1E0,3E0,1E0,9E0,1.5E1,1E0,9E0,2E0],"tree_param":{"num_deleted":"0","num_feature":"25","num_nodes":"51","size_leaf_vector":"1"}},{"base_weights":[1.0779846E0,-3.2567028E1,5.5910545E1,-5.890614E1,-5.370888E0,3.615921E1,9.068435E1,-4.1266563E1,-6.861601E1,5.236844E0,-1.8782608E1,3.73829E1,-2.7575685E-2,6.7325106E0,1.2860967E1,-4.302881E1,-7.416443E-1,-4.760332E1,-7.872393E1,-1.2616757E0,2.277651E1,8.435455E0,-2.521758E1,2.0361633E1,4.1678E1,-1.5216594E0,-4.6137104E1,-5.1573243E0,-5.937012E-1,-1.9191834E0,-8.182703E0,1.4018284E1,-1.640145E1,2.8804016E0,7.1476644E-1,-2.0817058E-1,1.7183167E0,-4.411446E0,-9.817708E0,2.647522E1,1.3472494E0,3.0015512E1,5.3837686E0,-1.9870688E0,-4.910639E0,1.7890748E0,3.0977378E-2,-2.4007792E0,-8.9157104E-2,2.1224366E-1,-2.4346924E-1,5.842377E-1,-1.8621482E0,6.7919314E-1,2.9053493E0,4.7009888E-1,-2.6801148E-1,8.958252E-1,3.2778535E0],"categories":[],"categories_nodes":[],"categories_segments":[],"categories_sizes":[],"default_left":[1,1,0,0,0,0,0,0,0,0,0,0,0,0,0,0,0,0,0,0,0,0,0,0,0,0,0,0,0,0,0,0,0,0,0,0,0,0,0,0,0,0,0,0,0,0,0,0,0,0,0,0,0,0,0,0,0,0,0],"id":11,"left_children":[1,3,5,7,9,11,13,15,17,19,21,23,-1,-1,-1,25,-1,27,29,31,33,35,37,39,41,-1,43,-1,-1,-1,-1,45,47,-1,-1,49,-1,-1,51,53,55,57,-1,-1,-1,-1,-1,-1,-1,-1,-1,-1,-1,-1,-1,-1,-1,-1,-1],"loss_changes":[2.2320189E5,5.340778E4,2.8315062E4,3.6770156E3,5.504543E3,1.3924492E3,5.5158438E3,6.353164E2,1.1375469E3,2.5363374E3,3.19023E3,1.3446094E3,0E0,0E0,0E0,5.946797E2,0E0,1.3479297E3,1.0158672E3,4.162617E3,3.5933643E2,3.0602478E2,3.6410312E3,8.9430005E2,1.6457148E3,0E0,3.8125E1,0E0,0E0,0E0,0E0,4.7222913E2,1.0403564E3,0E0,0E0,2.0734924E1,0E0,0E0,1.349604E3,1.07163574E2,5.3119377E1,5.209053E2,0E0,0E0,0E0,0E0,0E0,0E0,0E0,0E0,0E0,0E0,0E0,0E0,0E0,0E0,0E0,0E0,0E0],"parents":[2147483647,0,0,1,1,2,2,3,3,4,4,5,5,6,6,7,7,8,8,9,9,10,10,11,11,15,15,17,17,18,18,19,19,20,20,21,21,22,22,23,23,24,24,26,26,31,31,32,32,35,35,38,38,39,39,40,40,41,41],"right_children":[2,4,6,8,10,12,14,16,18,20,22,24,-1,-1,-1,26,-1,28,30,32,34,36,38,40,42,-1,44,-1,-1,-1,-1,46,48,-1,-1,50,-1,-1,52,54,56,58,-1,-1,-1,-1,-1,-1,-1,-1,-1,-1,-1,-1,-1,-1,-1,-1,-1],"split_conditions":[1.9350669E3,1.7555266E3,1.28E2,6.3213108E1,1.9079613E3,5.8049393E1,2.0917969E3,1.8111228E3,1.4E1,4.641706E1,1.8E1,-4.4039416E-1,-2.7575685E-2,6.7325106E0,1.2860967E1,1.687285E3,-7.416443E-1,9.9871653E-1,1.6924526E3,6.2902336E1,5.0859886E1,1.7E1,1.7757281E3,1.9E1,6.234898E-1,-1.5216594E0,1.6782471E3,-5.1573243E0,-5.937012E-1,-1.9191834E0,-8.182703E0,4E0,1.8322476E3,2.8804016E0,7.1476644E-1,1.6E1,1.7183167E0,-4.411446E0,-2.2252093E-1,1E0,2E1,-8.9780456E-1,5.3837686E0,-1.9870688E0,-4.910639E0,1.7890748E0,3.0977378E-2,-2.4007792E0,-8.9157104E-2,2.1224366E-1,-2.4346924E-1,5.842377E-1,-1.8621482E0,6.7919314E-1,2.9053493E0,4.7009888E-1,-2.6801148E-1,8.958252E-1,3.2778535E0],"split_indices":[20,17,5,22,21,18,17,15,5,18,5,11,0,0,0,21,0,10,16,22,18,2,17,2,13,0,17,0,0,0,0,3,17,0,0,2,0,0,13,3,2,10,0,0,0,0,0,0,0,0,0,0,0,0,0,0,0,0,0],"split_type":[0,0,0,0,0,0,0,0,0,0,0,0,0,0,0,0,0,0,0,0,0,0,0,0,0,0,0,0,0,0,0,0,0,0,0,0,0,0,0,0,0,0,0,0,0,0,0,0,0,0,0,0,0,0,0,0,0,0,0],"sum_hessian":[1.19E2,7.4E1,4.5E1,3.7E1,3.7E1,3E1,1.5E1,1.5E1,2.2E1,2.1E1,1.6E1,2.9E1,1E0,1.1E1,4E0,1.4E1,1E0,9E0,1.3E1,1.6E1,5E0,3E0,1.3E1,7E0,2.2E1,2E0,1.2E1,8E0,1E0,1E0,1.2E1,8E0,8E0,3E0,2E0,2E0,1E0,5E0,8E0,5E0,2E0,1.3E1,9E0,2E0,1E1,6E0,2E0,5E0,3E0,1E0,1E0,3E0,5E0,1E0,4E0,1E0,1E0,2E0,1.1E1],"tree_param":{"num_deleted":"0","num_feature":"25","num_nodes":"59","size_leaf_vector":"1"}},{"base_weights":[-4.6040282E-1,-2.584938E1,4.619517E1,-4.3935974E1,-8.0145855E0,2.6873219E1,7.416561E1,-4.824126E1,-1.2216695E1,7.2501597E0,-1.45810375E1,3.0999968E1,7.2629395E0,1.4707581E0,7.696252E1,-2.5735758E1,-5.4176193E1,-4.745636E0,-1.8105875E0,1.0927979E0,2.0831024E1,-8.090033E0,-3.0608673E1,3.4170208E1,-4.683024E-2,-1.8267517E0,1.6961548E0,5.092844E0,9.663054E0,6.28302E0,-4.2792315E0,-5.865098E1,-2.9485067E1,-5.604004E-1,-1.0852661E-1,-1.2659497E1,1.2370911E1,2.5217733E0,3.8354492E-1,-3.1148713E0,-2.8097823E0,-3.7896588E0,-5.829956E0,4.1882824E1,2.4052357E1,2.6793213E0,-7.672486E-1,8.176595E-1,3.0114746E-2,-6.0349326E0,-1.2342042E0,-8.715779E-1,-3.7690766E0,-1.6394471E0,1.14019774E-1,1.518921E-1,1.4237524E0,-3.0483825E0,4.212104E-2,-1.4277954E-1,-7.317139E-1,4.4659424E-1,4.5544043E0,2.5167127E0,6.4523315E-1,8.101807E-2,3.2088014E-1],"categories":[],"categories_nodes":[],"categories_segments":[],"categories_sizes":[],"default_left":[1,1,0,0,0,0,0,0,0,0,0,0,0,0,0,0,1,0,0,0,0,0,1,0,0,0,0,0,0,0,0,1,0,0,0,0,0,0,0,0,0,0,0,0,0,0,0,0,0,0,0,0,0,0,0,0,0,0,0,0,0,0,0,0,0,0,0],"id":12,"left_children":[1,3,5,7,9,11,13,15,17,19,21,23,25,-1,27,29,31,33,-1,35,37,39,41,43,-1,45,-1,-1,-1,47,-1,49,51,-1,-1,53,55,-1,-1,-1,57,-1,59,61,63,65,-1,-1,-1,-1,-1,-1,-1,-1,-1,-1,-1,-1,-1,-1,-1,-1,-1,-1,-1,-1,-1],"loss_changes":[1.4452312E5,2.513096E4,2.1246E4,4.736508E3,4.215359E3,1.9598691E3,1.6951406E3,3.1470703E3,1.7806665E2,1.0643257E3,2.7694038E3,2.2107676E3,5.599287E2,0E0,3.271375E3,5.1840366E3,1.1433438E3,6.485939E0,0E0,1.7076089E3,2.014972E2,2.591102E3,1.2237451E3,5.5331836E2,0E0,1.2592227E2,0E0,0E0,0E0,4.2846146E1,0E0,9.0678125E2,6.940547E2,0E0,0E0,2.764004E2,9.991321E1,0E0,0E0,0E0,1.711718E3,0E0,9.193085E0,1.1665156E3,5.3433105E1,3.6931038E-1,0E0,0E0,0E0,0E0,0E0,0E0,0E0,0E0,0E0,0E0,0E0,0E0,0E0,0E0,0E0,0E0,0E0,0E0,0E0,0E0,0E0],"parents":[2147483647,0,0,1,1,2,2,3,3,4,4,5,5,6,6,7,7,8,8,9,9,10,10,11,11,12,12,14,14,15,15,16,16,17,17,19,19,20,20,21,21,22,22,23,23,25,25,29,29,31,31,32,32,35,35,36,36,40,40,42,42,43,43,44,44,45,45],"right_children":[2,4,6,8,10,12,14,16,18,20,22,24,26,-1,28,30,32,34,-1,36,38,40,42,44,-1,46,-1,-1,-1,48,-1,50,52,-1,-1,54,56,-1,-1,-1,58,-1,60,62,64,66,-1,-1,-1,-1,-1,-1,-1,-1,-1,-1,-1,-1,-1,-1,-1,-1,-1,-1,-1,-1,-1],"split_conditions":[1.9350669E3,1.838426E3,1.9950408E3,5.8E1,1.8678872E3,1.9524323E3,1.8694009E3,1.6594454E3,7.818315E-1,4.641706E1,1.838426E3,5.8049393E1,0E0,1.4707581E0,4.3388373E-1,2E0,1.7643646E3,6.2E1,-1.8105875E0,1.8971172E3,6.234898E-1,1.7252682E3,1.9324471E3,-2.4492937E-16,-4.683024E-2,4E0,1.6961548E0,5.092844E0,9.663054E0,7E0,-4.2792315E0,1.8307621E3,6.234898E-1,-5.604004E-1,-1.0852661E-1,2.3E1,0E0,2.5217733E0,3.8354492E-1,-3.1148713E0,1.6484258E3,-3.7896588E0,1E1,2.2438025E1,1E0,2.5E1,-7.672486E-1,8.176595E-1,3.0114746E-2,-6.0349326E0,-1.2342042E0,-8.715779E-1,-3.7690766E0,-1.6394471E0,1.14019774E-1,1.518921E-1,1.4237524E0,-3.0483825E0,4.212104E-2,-1.4277954E-1,-7.317139E-1,4.4659424E-1,4.5544043E0,2.5167127E0,6.4523315E-1,8.101807E-2,3.2088014E-1],"split_indices":[20,20,14,5,21,15,15,14,12,18,14,18,12,0,12,1,16,5,0,16,13,14,16,10,0,1,0,0,0,2,0,14,13,0,0,2,12,0,0,0,15,0,2,18,13,2,0,0,0,0,0,0,0,0,0,0,0,0,0,0,0,0,0,0,0,0,0],"split_type":[0,0,0,0,0,0,0,0,0,0,0,0,0,0,0,0,0,0,0,0,0,0,0,0,0,0,0,0,0,0,0,0,0,0,0,0,0,0,0,0,0,0,0,0,0,0,0,0,0,0,0,0,0,0,0,0,0,0,0,0,0,0,0,0,0,0,0],"sum_hessian":[1.2E2,7.8E1,4.2E1,3.8E1,4E1,2.6E1,1.6E1,3.3E1,5E0,1.2E1,2.8E1,2.1E1,5E0,1E0,1.5E1,8E0,2.5E1,3E0,2E0,9E0,3E0,2.1E1,7E0,1.9E1,2E0,3E0,2E0,8E0,7E0,3E0,5E0,2E1,5E0,2E0,1E0,4E0,5E0,2E0,1E0,3E0,1.8E1,5E0,2E0,9E0,1E1,2E0,1E0,2E0,1E0,1.9E1,1E0,2E0,3E0,3E0,1E0,1E0,4E0,1E0,1.7E1,1E0,1E0,1E0,8E0,9E0,1E0,1E0,1E0],"tree_param":{"num_deleted":"0","num_feature":"25","num_nodes":"67","size_leaf_vector":"1"}},{"base_weights":[1.0486286E0,-2.658592E1,4.793871E1,-4.3818207E1,-4.370476E0,2.6937153E1,7.304925E1,-3.6027912E1,-6.436533E1,1.7721645E1,-9.936193E0,3.2021324E1,9.289098E0,3.7394367E1,8.311211E1,-3.963355E1,-8.630762E0,-7.542432E1,-2.8920777E0,5.496867E-1,2.1512182E0,-4.4816523E0,-3.3039844E0,7.3378906E0,3.4493618E1,2.022815E0,-3.972229E0,1.1326417E0,4.0342674E0,1.3972229E0,8.735577E1,-2.6480127E1,-5.0895535E1,6.0249025E-1,-1.3800904E0,-8.138456E0,-1.9831421E0,1.9951441E0,-1.0675537E1,1.0237182E0,7.696533E-2,4.4351143E1,2.0803467E1,-4.370524E-2,-7.28888E-1,1.8417542E0,9.156583E0,-3.7765672E0,-1.1884568E0,-9.8371583E-1,-5.6918836E0,-2.881256E0,-5.47406E-1,1.2650207E0,4.6732483E0,6.1297E-1,2.1871476E0],"categories":[],"categories_nodes":[],"categories_segments":[],"categories_sizes":[],"default_left":[1,1,0,1,0,0,0,0,0,0,0,0,0,0,0,0,0,0,0,0,0,0,0,0,0,0,0,0,0,0,0,0,0,0,0,0,0,0,0,0,0,0,0,0,0,0,0,0,0,0,0,0,0,0,0,0,0],"id":13,"left_children":[1,3,5,7,9,11,13,15,17,19,21,23,25,27,29,31,33,35,-1,-1,-1,37,-1,39,41,-1,43,-1,-1,-1,45,47,49,-1,-1,-1,-1,-1,51,-1,-1,53,55,-1,-1,-1,-1,-1,-1,-1,-1,-1,-1,-1,-1,-1,-1],"loss_changes":[1.502899E5,2.7754566E4,2.0708758E4,4.2438516E3,4.2337163E3,1.9456953E3,3.709086E3,2.8190234E3,1.7384766E3,2.0611963E2,3.254462E3,9.063574E2,1.0958152E3,4.201172E0,2.8871328E3,2.8000234E3,4.6200836E2,7.0546094E2,0E0,0E0,0E0,3.693715E3,0E0,4.925064E1,1.3715078E3,0E0,4.3714153E1,0E0,0E0,0E0,2.086625E3,2.0219531E3,2.902375E3,0E0,0E0,0E0,0E0,0E0,1.6347253E3,0E0,0E0,8.824219E1,6.9797363E0,0E0,0E0,0E0,0E0,0E0,0E0,0E0,0E0,0E0,0E0,0E0,0E0,0E0,0E0],"parents":[2147483647,0,0,1,1,2,2,3,3,4,4,5,5,6,6,7,7,8,8,9,9,10,10,11,11,12,12,13,13,14,14,15,15,16,16,17,17,21,21,23,23,24,24,26,26,30,30,31,31,32,32,38,38,41,41,42,42],"right_children":[2,4,6,8,10,12,14,16,18,20,22,24,26,28,30,32,34,36,-1,-1,-1,38,-1,40,42,-1,44,-1,-1,-1,46,48,50,-1,-1,-1,-1,-1,52,-1,-1,54,56,-1,-1,-1,-1,-1,-1,-1,-1,-1,-1,-1,-1,-1,-1],"split_conditions":[1.9350669E3,1.838426E3,1.9950408E3,6.824377E1,1.857128E3,5.3648323E1,4.0368664E1,9.749279E-1,5E0,1E0,1.8636407E3,-9.680771E-1,1.690337E3,-2.2252093E-1,1.8694009E3,1.7019857E3,2E0,9.749279E-1,-2.8920777E0,5.496867E-1,2.1512182E0,2E0,-3.3039844E0,2.4E1,-1.0116832E-1,2.022815E0,4E0,1.1326417E0,4.0342674E0,1.3972229E0,1.7616047E3,1.7749125E3,1.6484258E3,6.0249025E-1,-1.3800904E0,-8.138456E0,-1.9831421E0,1.9951441E0,1.7252682E3,1.0237182E0,7.696533E-2,1.9459155E3,1.8567183E3,-4.370524E-2,-7.28888E-1,1.8417542E0,9.156583E0,-3.7765672E0,-1.1884568E0,-9.8371583E-1,-5.6918836E0,-2.881256E0,-5.47406E-1,1.2650207E0,4.6732483E0,6.1297E-1,2.1871476E0],"split_indices":[20,20,14,22,21,18,18,12,3,3,14,10,16,13,15,15,1,12,0,0,0,3,0,2,10,0,1,0,0,0,16,20,14,0,0,0,0,0,14,0,0,20,15,0,0,0,0,0,0,0,0,0,0,0,0,0,0],"split_type":[0,0,0,0,0,0,0,0,0,0,0,0,0,0,0,0,0,0,0,0,0,0,0,0,0,0,0,0,0,0,0,0,0,0,0,0,0,0,0,0,0,0,0,0,0,0,0,0,0,0,0,0,0,0,0,0,0],"sum_hessian":[1.14E2,7.2E1,4.2E1,4E1,3.2E1,2.4E1,1.8E1,3.1E1,9E0,6E0,2.6E1,1.8E1,6E0,5E0,1.3E1,2.7E1,4E0,6E0,3E0,2E0,4E0,2.2E1,4E0,2E0,1.6E1,3E0,3E0,1E0,4E0,1E0,1.2E1,1.4E1,1.3E1,1E0,3E0,5E0,1E0,4E0,1.8E1,1E0,1E0,8E0,8E0,2E0,1E0,1E0,1.1E1,7E0,7E0,2E0,1.1E1,3E0,1.5E1,1E0,7E0,1E0,7E0],"tree_param":{"num_deleted":"0","num_feature":"25","num_nodes":"57","size_leaf_vector":"1"}},{"base_weights":[3.3259532E-1,-2.2764088E1,3.7376595E1,-4.485509E1,-9.225247E0,2.149718E1,6.2647995E1,-4.8870007E1,-1.5809497E1,5.865326E0,-1.6055363E1,2.3940908E1,7.324829E0,4.7427106E0,8.5185265E1,-2.2532563E0,-5.1437267E1,-1.7692689E0,-4.138367E-1,1.4654694E1,-2.5991483E0,-2.470616E1,-9.523623E0,1.5585609E1,3.3917625E0,1.6036743E0,-1.0403137E0,9.532192E0,1.7250977E0,-4.197745E1,-6.96672E0,-2.518738E-1,1.7467861E1,-1.4779663E1,5.954386E0,-9.345012E0,-4.3630188E1,-2.799951E0,-2.2570974E1,1.8730513E1,-4.285807E0,9.426392E-1,-7.671346E-1,-4.3988266E0,-4.902222E-1,2.154825E0,9.020508E-1,-1.7342691E0,-3.545288E-1,1.3568726E-1,6.602515E-1,-2.6876857E0,1.0055835E0,-8.878967E-1,-4.880464E0,1.4796814E0,-8.43221E-1,-2.904656E0,-4.2546794E-1,5.708252E-1,2.3368592E0,-7.159912E-1,7.312012E-2],"categories":[],"categories_nodes":[],"categories_segments":[],"categories_sizes":[],"default_left":[1,1,0,0,0,0,0,0,0,0,0,0,0,0,0,0,1,0,0,0,0,0,0,0,0,0,0,0,0,0,0,0,0,0,0,0,0,0,0,0,0,0,0,0,0,0,0,0,0,0,0,0,0,0,0,0,0,0,0,0,0,0,0],"id":14,"left_children":[1,3,5,7,9,11,13,15,17,19,21,23,25,-1,27,-1,29,-1,-1,31,33,35,37,39,-1,-1,41,-1,-1,43,-1,-1,45,47,49,51,53,55,57,59,61,-1,-1,-1,-1,-1,-1,-1,-1,-1,-1,-1,-1,-1,-1,-1,-1,-1,-1,-1,-1,-1,-1],"loss_changes":[1.0694444E5,2.261586E4,1.7915414E4,2.6092422E3,5.1446167E3,8.982715E2,2.1345781E3,5.313672E2,3.6676147E1,1.2284478E3,1.6858701E3,1.6386924E3,4.5394174E2,0E0,2.4873633E3,0E0,8.694883E2,0E0,0E0,4.3049072E2,1.0256819E3,3.662002E3,1.779051E3,1.0801743E3,0E0,0E0,3.4993335E2,0E0,0E0,1.0517344E3,0E0,0E0,4.6903076E1,5.3691223E1,8.919876E0,3.3314626E3,6.455762E2,1.611413E3,7.0667725E2,7.121821E2,4.849357E1,0E0,0E0,0E0,0E0,0E0,0E0,0E0,0E0,0E0,0E0,0E0,0E0,0E0,0E0,0E0,0E0,0E0,0E0,0E0,0E0,0E0,0E0],"parents":[2147483647,0,0,1,1,2,2,3,3,4,4,5,5,6,6,7,7,8,8,9,9,10,10,11,11,12,12,14,14,16,16,19,19,20,20,21,21,22,22,23,23,26,26,29,29,32,32,33,33,34,34,35,35,36,36,37,37,38,38,39,39,40,40],"right_children":[2,4,6,8,10,12,14,16,18,20,22,24,26,-1,28,-1,30,-1,-1,32,34,36,38,40,-1,-1,42,-1,-1,44,-1,-1,46,48,50,52,54,56,58,60,62,-1,-1,-1,-1,-1,-1,-1,-1,-1,-1,-1,-1,-1,-1,-1,-1,-1,-1,-1,-1,-1,-1],"split_conditions":[1.9350669E3,1.7442853E3,1.26E2,5.6E1,1.8678872E3,1.8962914E3,2.0917969E3,1.6109202E3,2.7E1,6.234898E-1,1.775432E3,8.5E1,1.8600771E3,4.7427106E0,1E0,-2.2532563E0,6.3639515E1,-1.7692689E0,-4.138367E-1,3E0,1.7685228E3,1.8E1,1.838426E3,1.7011017E3,3.3917625E0,1.6036743E0,2E0,9.532192E0,1.7250977E0,9.749279E-1,-6.96672E0,-2.518738E-1,2.1E1,6.5E1,1.5142778E-1,6.234898E-1,-7.818315E-1,-2.2252093E-1,1.9286814E3,-4.3388373E-1,2.1E1,9.426392E-1,-7.671346E-1,-4.3988266E0,-4.902222E-1,2.154825E0,9.020508E-1,-1.7342691E0,-3.545288E-1,1.3568726E-1,6.602515E-1,-2.6876857E0,1.0055835E0,-8.878967E-1,-4.880464E0,1.4796814E0,-8.43221E-1,-2.904656E0,-4.2546794E-1,5.708252E-1,2.3368592E0,-7.159912E-1,7.312012E-2],"split_indices":[20,17,5,5,21,21,17,14,2,13,17,5,14,0,13,0,22,0,0,2,15,2,14,16,0,0,2,0,0,12,0,0,2,5,11,13,12,13,16,12,2,0,0,0,0,0,0,0,0,0,0,0,0,0,0,0,0,0,0,0,0,0,0],"split_type":[0,0,0,0,0,0,0,0,0,0,0,0,0,0,0,0,0,0,0,0,0,0,0,0,0,0,0,0,0,0,0,0,0,0,0,0,0,0,0,0,0,0,0,0,0,0,0,0,0,0,0,0,0,0,0,0,0,0,0,0,0,0,0],"sum_hessian":[1.23E2,7.6E1,4.7E1,2.8E1,4.8E1,3E1,1.7E1,2.4E1,4E0,1.5E1,3.3E1,2.5E1,5E0,1.2E1,5E0,3E0,2.1E1,3E0,1E0,7E0,8E0,1.3E1,2E1,1.5E1,1E1,2E0,3E0,4E0,1E0,1.6E1,5E0,1E0,6E0,3E0,5E0,8E0,5E0,1.4E1,6E0,1.3E1,2E0,1E0,2E0,1.5E1,1E0,3E0,3E0,2E0,1E0,1E0,4E0,4E0,4E0,1E0,4E0,3E0,1.1E1,4E0,2E0,4E0,9E0,1E0,1E0],"tree_param":{"num_deleted":"0","num_feature":"25","num_nodes":"63","size_leaf_vector":"1"}}]},"name":"gbtree"},"learner_model_param":{"base_score":"1.8467424E3","boost_from_average":"1","num_class":"0","num_feature":"25","num_target":"1"},"objective":{"name":"reg:squarederror","reg_loss_param":{"scale_pos_weight":"1"}}},"version":[2,1,4]}